<?xml version="1.0"?>
<opencv_storage>
<stage1>
  <maxWeakCount>25</maxWeakCount>
  <stageThreshold>-7.7054661512374878e-01</stageThreshold>
  <weakClassifiers>
    <_>
      <internalNodes>
        0 -1 73523 -2.8228086885064840e-03</internalNodes>
      <leafValues>
        -3.7383177876472473e-01 4.6654930710792542e-01</leafValues></_>
    <_>
      <internalNodes>
        0 -1 20856 8.2226440310478210e-02</internalNodes>
      <leafValues>
        -1.6690388321876526e-01 6.0219156742095947e-01</leafValues></_>
    <_>
      <internalNodes>
        0 -1 7301 3.3673382131382823e-04</internalNodes>
      <leafValues>
        1.8053171038627625e-01 -4.7030174732208252e-01</leafValues></_>
    <_>
      <internalNodes>
        0 -1 78318 -1.1842468520626426e-03</internalNodes>
      <leafValues>
        -3.8538092374801636e-01 2.0253376662731171e-01</leafValues></_>
    <_>
      <internalNodes>
        0 -1 2725 -1.3331879745237529e-04</internalNodes>
      <leafValues>
        -3.7285938858985901e-01 1.7600749433040619e-01</leafValues></_>
    <_>
      <internalNodes>
        0 -1 28572 8.3328336477279663e-02</internalNodes>
      <leafValues>
        -1.5463142096996307e-01 6.5447235107421875e-01</leafValues></_>
    <_>
      <internalNodes>
        0 -1 22257 -8.6858399212360382e-02</internalNodes>
      <leafValues>
        5.3848016262054443e-01 -9.4513565301895142e-02</leafValues></_>
    <_>
      <internalNodes>
        0 -1 75168 2.9775261646136642e-04</internalNodes>
      <leafValues>
        1.6328513622283936e-01 -3.6768928170204163e-01</leafValues></_>
    <_>
      <internalNodes>
        0 -1 49401 4.7709932550787926e-03</internalNodes>
      <leafValues>
        -1.8591506779193878e-01 3.1828701496124268e-01</leafValues></_>
    <_>
      <internalNodes>
        0 -1 60272 1.6904303338378668e-03</internalNodes>
      <leafValues>
        -1.6010715067386627e-01 3.3985856175422668e-01</leafValues></_>
    <_>
      <internalNodes>
        0 -1 21824 1.1738087981939316e-02</internalNodes>
      <leafValues>
        8.0400332808494568e-02 -6.7648488283157349e-01</leafValues></_>
    <_>
      <internalNodes>
        0 -1 28052 -8.9960944023914635e-05</internalNodes>
      <leafValues>
        -3.2027074694633484e-01 1.5972287952899933e-01</leafValues></_>
    <_>
      <internalNodes>
        0 -1 6446 6.0384008102118969e-03</internalNodes>
      <leafValues>
        -1.4846304059028625e-01 3.3315718173980713e-01</leafValues></_>
    <_>
      <internalNodes>
        0 -1 77648 -2.6834956370294094e-03</internalNodes>
      <leafValues>
        -4.7586336731910706e-01 1.1866252124309540e-01</leafValues></_>
    <_>
      <internalNodes>
        0 -1 39846 -2.0916375797241926e-03</internalNodes>
      <leafValues>
        -3.8197374343872070e-01 1.3710767030715942e-01</leafValues></_>
    <_>
      <internalNodes>
        0 -1 53065 1.5776932239532471e-02</internalNodes>
      <leafValues>
        -1.5676745772361755e-01 3.4461379051208496e-01</leafValues></_>
    <_>
      <internalNodes>
        0 -1 32045 6.5038697794079781e-03</internalNodes>
      <leafValues>
        -1.4841900765895844e-01 3.9238288998603821e-01</leafValues></_>
    <_>
      <internalNodes>
        0 -1 8317 -1.1841849482152611e-04</internalNodes>
      <leafValues>
        -2.9231753945350647e-01 1.8709571659564972e-01</leafValues></_>
    <_>
      <internalNodes>
        0 -1 3323 -2.3716269060969353e-04</internalNodes>
      <leafValues>
        -3.2719343900680542e-01 1.5511980652809143e-01</leafValues></_>
    <_>
      <internalNodes>
        0 -1 71329 -1.0186679661273956e-02</internalNodes>
      <leafValues>
        -6.7878425121307373e-01 6.2378663569688797e-02</leafValues></_>
    <_>
      <internalNodes>
        0 -1 56083 4.6517956070601940e-03</internalNodes>
      <leafValues>
        -1.6246397793292999e-01 3.2822495698928833e-01</leafValues></_>
    <_>
      <internalNodes>
        0 -1 37461 1.9130052533000708e-03</internalNodes>
      <leafValues>
        -1.6356664896011353e-01 3.2550784945487976e-01</leafValues></_>
    <_>
      <internalNodes>
        0 -1 78438 -5.4267363157123327e-04</internalNodes>
      <leafValues>
        -2.7237161993980408e-01 1.8689960241317749e-01</leafValues></_>
    <_>
      <internalNodes>
        0 -1 6800 -1.7363652586936951e-02</internalNodes>
      <leafValues>
        2.1973575651645660e-01 -2.0951327681541443e-01</leafValues></_>
    <_>
      <internalNodes>
        0 -1 4032 4.8656530678272247e-02</internalNodes>
      <leafValues>
        -1.0573091357946396e-01 4.4404697418212891e-01</leafValues></_></weakClassifiers></stage1>
</opencv_storage>
